Language model created by QuickLM on Thu Feb 11 12:04:02 CET 2016
Copyright (c) 1996-2002
Carnegie Mellon University and Alexander I. Rudnicky

This model based on a corpus of 9 sentences and 29 words
The (fixed) discount mass is 0.5

\data\
ngram 1=29
ngram 2=47
ngram 3=47

\1-grams:
-1.1919 </s> -0.3010
-1.1919 <s> -0.2377
-1.3680 at -0.2755
-2.1461 can -0.2948
-1.6690 go -0.2852
-1.3680 home -0.2688
-1.8451 i -0.2948
-1.4472 is -0.2788
-2.1461 it -0.2979
-2.1461 kitchen -0.2852
-2.1461 laptop -0.2852
-1.6690 left -0.2688
-2.1461 look -0.2916
-1.8451 my -0.2788
-2.1461 now -0.2722
-2.1461 out -0.2722
-1.8451 please -0.2884
-2.1461 right -0.2979
-1.6690 robot -0.2852
-2.1461 smartphone -0.2852
-2.1461 somethin -0.2820
-2.1461 something -0.2852
-2.1461 take -0.2979
-2.1461 the -0.2979
-2.1461 there -0.2852
-2.1461 think -0.2979
-1.8451 to -0.2820
-2.1461 want -0.2948
-1.8451 you -0.2884

\2-grams:
-1.2553 <s> at -0.0669
-1.2553 <s> go -0.2218
-1.2553 <s> i -0.1761
-1.2553 <s> look 0.0000
-1.2553 <s> please -0.1761
-0.9542 <s> robot -0.1249
-1.2553 <s> smartphone 0.0000
-1.2553 <s> the 0.0000
-0.3802 at home 0.0000
-1.0792 at my -0.1761
-0.3010 can you -0.1761
-0.4771 go left 0.0000
-0.7782 go to -0.1761
-0.3802 home </s> -0.3010
-1.0792 home can 0.0000
-0.6021 i think 0.0000
-0.6021 i want 0.0000
-0.3979 is at 0.0000
-1.0000 is somethin 0.0000
-0.3010 it out 0.0000
-0.3010 kitchen is -0.0792
-0.3010 laptop is -0.0792
-0.4771 left </s> -0.3010
-0.7782 left right 0.0000
-0.3010 look robot -0.2218
-0.6021 my home -0.0669
-0.6021 my laptop 0.0000
-0.3010 now </s> -0.3010
-0.3010 out </s> -0.3010
-0.6021 please go -0.1249
-0.6021 please take 0.0000
-0.3010 right now 0.0000
-0.7782 robot i -0.1761
-0.7782 robot my -0.1761
-0.7782 robot there 0.0000
-0.3010 smartphone is -0.0792
-0.3010 somethin at -0.0669
-0.3010 something is -0.0792
-0.3010 take it 0.0000
-0.3010 the kitchen 0.0000
-0.3010 there is -0.2553
-0.3010 think something 0.0000
-0.6021 to go -0.1249
-0.6021 to left -0.1249
-0.3010 want you -0.1761
-0.6021 you please -0.1761
-0.6021 you to -0.1761

\3-grams:
-0.3010 <s> at home
-0.3010 <s> go to
-0.3010 <s> i want
-0.3010 <s> look robot
-0.3010 <s> please go
-0.6021 <s> robot i
-0.6021 <s> robot my
-0.3010 <s> smartphone is
-0.3010 <s> the kitchen
-0.3979 at home </s>
-1.0000 at home can
-0.3010 at my home
-0.3010 can you please
-0.6021 go left </s>
-0.6021 go left right
-0.3010 go to left
-0.3010 home can you
-0.3010 i think something
-0.3010 i want you
-0.4260 is at home
-0.9031 is at my
-0.3010 is somethin at
-0.3010 it out </s>
-0.3010 kitchen is at
-0.3010 laptop is at
-0.3010 left right now
-0.3010 look robot there
-0.3010 my home </s>
-0.3010 my laptop is
-0.3010 please go left
-0.3010 please take it
-0.3010 right now </s>
-0.3010 robot i think
-0.3010 robot my laptop
-0.3010 robot there is
-0.3010 smartphone is at
-0.3010 somethin at home
-0.3010 something is at
-0.3010 take it out
-0.3010 the kitchen is
-0.3010 there is somethin
-0.3010 think something is
-0.3010 to go left
-0.3010 to left </s>
-0.3010 want you to
-0.3010 you please take
-0.3010 you to go

\end\
